//Numpy array shape [100]
//Min -0.353213965893
//Max 0.902052283287
//Number of zeros 10

#ifndef B2_H_
#define B2_H_

#ifndef __SYNTHESIS__
dense_bias_t b2[100];
#else
dense_bias_t b2[100] = {-0.2097402066, 0.1317505687, 0.1760092378, 0.2717244923, 0.2870299518, -0.1587523222, -0.2537791729, -0.2476910949, 0.0044047092, 0.0121304709, -0.0140404524, -0.2170712501, 0.0000000000, -0.0395122357, -0.0760594904, -0.3182532787, 0.6467422843, 0.4257374704, -0.1616794169, 0.0128012616, -0.2562238872, -0.0376829281, 0.0000000000, -0.0990166515, -0.0906972140, -0.0823574141, -0.1096803769, 0.0000000000, -0.3295622170, 0.0000000000, -0.1436855197, 0.3258761168, -0.2515777349, 0.2740882337, 0.0000000000, -0.0764984637, -0.2306051105, -0.2686320245, 0.1038508341, -0.1207785606, 0.0225635041, -0.2322618663, -0.2387781888, -0.0146672819, -0.1939636022, -0.1871123016, -0.0488682948, 0.2241969556, -0.1925254166, -0.1738111675, -0.1395786256, -0.0145076755, -0.2507515550, -0.2350658476, -0.0574141219, -0.2046234608, 0.1620110422, 0.2271271199, -0.2165812254, -0.0868444741, 0.1989807636, 0.0000000000, -0.0844503641, -0.2096617371, 0.3989873528, 0.1493625641, 0.0000000000, -0.1066192538, -0.1962945759, -0.1200226545, 0.1871387661, 0.1101202741, 0.0480459481, 0.0000000000, -0.0353060961, -0.2012204826, -0.1630233079, 0.5205155611, -0.1469610631, -0.1622105837, 0.2553440630, 0.0000000000, -0.2523085773, 0.7116402388, 0.2685832977, 0.1379027665, -0.0178957433, -0.1641308665, -0.0842409879, -0.1996201426, 0.1899222732, -0.2381568104, 0.2174016237, 0.0000000000, -0.0491995700, -0.3532139659, -0.1746829599, -0.0460481755, 0.9020522833, -0.0690340921};

#endif

#endif
