//Numpy array shape [100]
//Min -0.320700943470
//Max 0.304926693439
//Number of zeros 0

#ifndef B6_H_
#define B6_H_

#ifndef __SYNTHESIS__
dense_2_bias_t b6[100];
#else
dense_2_bias_t b6[100] = {-0.0753904656, 0.2184752971, -0.0739734322, -0.0317622535, -0.0219449420, -0.1235225424, -0.2144895047, -0.0928478688, -0.1263503283, -0.0443319418, 0.1303416789, -0.1193335354, -0.0480171479, -0.0293163005, -0.0426464900, 0.1020511538, -0.1310584992, -0.0041018133, -0.0218282901, 0.0633446053, -0.0288337041, 0.1014830470, -0.1095939577, 0.2439139336, -0.0244237278, -0.1532786787, -0.0363786519, 0.3049266934, -0.1550298184, -0.0073680598, -0.0525403582, 0.0019023508, 0.0812018365, -0.1480437070, -0.0002801675, -0.1845551431, -0.0574181154, -0.0796832964, 0.2761737108, -0.0166315325, -0.0492566489, -0.0911878794, -0.0158265680, -0.0899012983, 0.0748711601, -0.0748115629, -0.0721349716, -0.0561121292, -0.1378879994, 0.0616084784, 0.1082275733, -0.0611883774, -0.1174785495, 0.0367456600, -0.1038397923, -0.0502318889, -0.0817630887, -0.0073256399, 0.0100891721, -0.1626531184, 0.1635257453, -0.1576714665, -0.1068026498, -0.0536550730, -0.1970800012, 0.0174612664, -0.1333700866, 0.1348752528, -0.3207009435, -0.1867386103, 0.1906512827, -0.0075677587, -0.1076527461, -0.0841397271, -0.1257640868, 0.2147219181, -0.1241752878, -0.0731238350, 0.0696637705, -0.1370833069, -0.1170814559, -0.1982347518, 0.0555863008, 0.1054290906, -0.2005109042, 0.0026574347, 0.0562474094, 0.1110111549, -0.0022766702, 0.2635939419, -0.0484990515, -0.0960252956, 0.1885561347, -0.0316420756, 0.1021279991, 0.0548919700, 0.0029208711, 0.0988672003, 0.0037320673, 0.1091628000};

#endif

#endif
