//Numpy array shape [100]
//Min -0.320183128119
//Max 0.335825920105
//Number of zeros 0

#ifndef B8_H_
#define B8_H_

#ifndef __SYNTHESIS__
dense_3_bias_t b8[100];
#else
dense_3_bias_t b8[100] = {0.0890510976, -0.0235799365, -0.0080904095, 0.1390655190, -0.0900233239, -0.0357124396, -0.0496635698, -0.1183266640, -0.1990034878, 0.0336458310, 0.1683013886, 0.0352174528, 0.2379945219, -0.1736442149, -0.0011228559, 0.0711543187, -0.0662371144, 0.1459930986, -0.0696619153, 0.0924144536, 0.0226165932, -0.1320815086, -0.0296597052, -0.3201831281, -0.0429872349, 0.0997188017, -0.2380850911, 0.0277894028, 0.0029047460, -0.0408378951, -0.0935567319, 0.0198527016, 0.0953272805, -0.0374446437, 0.0993599296, -0.1775841266, 0.0919931233, 0.0844647139, -0.0270959865, 0.1589536518, -0.0753240958, 0.1218054146, 0.0261218082, -0.0329115205, -0.1192660108, -0.0523885116, 0.1594420075, 0.1600101292, 0.1505189389, -0.2815790176, 0.1235093325, -0.0082466127, 0.1996466964, 0.0159247033, -0.0462426431, 0.0612469949, -0.0391908176, -0.0843595266, -0.0490323305, -0.0987651572, -0.1488489658, -0.1324782372, -0.0363219045, -0.1854751855, -0.0376745351, -0.0557531901, 0.0227299109, -0.0193788186, 0.1795560420, -0.0408103988, -0.0826897621, -0.0926340669, -0.2290976942, -0.0240009129, 0.2591046393, 0.0098477006, 0.0056857686, -0.0020456912, -0.0961562395, 0.1294452995, 0.3358259201, -0.2231386155, -0.0714208484, -0.1196907535, 0.2267159820, 0.0020670358, 0.1069871560, 0.1191841960, 0.1649634689, -0.0157802273, -0.0750037730, -0.0516729131, -0.0197997820, -0.0459747612, -0.0377276130, -0.0520262644, -0.0864527375, 0.1696862429, -0.1004087031, 0.0642776936};

#endif

#endif
