//Numpy array shape [6, 100]
//Min -0.539795219898
//Max 0.962693989277
//Number of zeros 0

#ifndef W2_H_
#define W2_H_

#ifndef __SYNTHESIS__
dense_weight_t w2[600];
#else
dense_weight_t w2[600] = {-0.0019551655, -0.2713564038, -0.1171506941, -0.1458738297, -0.2331527174, -0.2146578133, -0.0132596549, 0.1383665800, 0.2791139185, -0.1089848801, 0.3098495305, 0.3181892335, -0.0153383147, 0.2346891910, 0.2728312016, -0.1554719955, 0.2315212637, 0.0290336926, 0.0823515207, 0.4156479537, 0.2848024368, 0.2455936670, 0.0798191205, 0.1778306812, -0.0075598848, 0.1283479035, 0.0559680201, -0.2194343060, 0.0511654727, 0.2593203783, -0.0025904963, -0.2915544808, 0.0490741543, -0.0632932335, -0.2599055171, -0.1731599867, -0.0014941965, -0.1946679652, -0.4026705921, -0.1050786227, -0.3769499362, -0.2012344450, 0.0582138635, -0.4441166520, -0.3213965893, -0.2200519443, -0.3849421442, -0.3813076019, -0.0026686576, 0.2049323469, 0.2002831399, -0.3112406135, -0.1380297542, -0.1195029244, -0.0053632916, 0.2190216482, -0.2923695743, -0.0871757641, 0.0963564962, -0.0437094197, -0.0118825762, 0.0357091725, 0.1485311687, -0.0781523809, -0.0737985820, 0.1313940138, -0.0042992369, -0.2268715054, -0.3550503254, 0.0228747465, -0.2390105724, -0.1232115701, -0.1745408922, -0.1692523956, -0.0732028335, -0.2051828504, 0.0824397951, -0.2076729536, -0.0068734451, -0.1223066300, 0.2156744748, 0.0403479077, -0.1278734654, 0.0764762908, -0.0223140530, 0.1264429241, -0.1415726990, 0.2538127303, -0.2198398709, -0.2518868744, -0.0078943362, -0.1870501488, -0.1941613406, 0.0354543366, -0.5220049024, -0.2586143613, 0.0281202774, 0.7118181586, 0.1056481078, 0.1989881545, 0.2729039192, 0.8267767429, 0.0627402142, 0.4867581725, -0.0438934155, -0.0068796678, 0.0606238060, 0.4590733051, -0.0256417692, -0.2311414480, -0.0482933037, -0.2012878656, -0.3164775968, -0.1258589774, -0.0013680407, -0.0278975703, 0.2735664845, -0.0941910669, -0.0555196963, -0.1219229177, 0.0265715495, -0.4415541291, -0.2714633048, -0.3076045513, -0.3906120658, -0.2671128511, -0.0044692047, -0.2084362358, -0.1441892385, 0.0923674107, -0.0617029779, 0.1973552406, -0.1867324710, -0.1480980515, -0.0101388097, -0.1460450590, 0.1200370044, 0.1600184292, -0.0063876053, -0.0088564390, -0.1999368519, -0.0942643806, -0.1465733200, -0.2038734257, -0.0055248421, 0.0146172801, 0.0657717884, 0.1668453068, 0.0970458910, -0.2195225060, -0.1725773811, -0.2018792182, -0.4042567611, 0.1325641125, -0.0858942941, -0.2602482438, -0.0022087118, -0.0662664995, -0.0590801165, 0.0260765199, 0.0185987223, -0.1683219969, -0.1376932114, -0.0011466146, -0.2143135220, -0.0582583994, -0.2082218677, -0.0230663121, -0.0037835457, -0.1402794868, -0.5238072276, -0.3141550124, -0.2945383787, -0.2059414238, -0.0282540172, -0.1799879372, -0.1354254633, -0.0056299716, 0.1255489439, -0.1643940806, 0.1698413640, -0.3171872795, -0.1388963461, -0.2148606628, -0.3581703603, -0.0734964907, 0.0187456589, 0.2093427628, 0.2144305557, 0.0961674452, -0.2763629556, 0.4530851245, -0.0007644299, -0.2523272038, -0.0803573802, 0.0403458886, -0.0383426622, -0.0936175808, 0.0802547336, 0.3797337711, 0.0116481017, -0.1956140995, 0.2125485688, 0.1762740165, -0.0027084351, 0.0077551156, -0.0885398388, -0.0833566189, -0.2195201069, 0.1472581476, -0.2046907991, -0.0477826446, 0.0782508031, -0.0906425491, -0.0748199150, 0.0502508134, -0.0182552896, -0.1900847405, -0.4261648059, 0.1589029580, -0.2389262319, -0.1468010545, 0.0300081689, -0.3933058977, -0.1624611169, -0.0688612759, -0.1384286135, -0.1532429457, 0.0669255182, 0.2990182638, -0.1343211532, -0.0950369611, 0.1683513671, 0.1728493273, -0.0018018518, 0.0560353622, -0.1484194398, 0.1081313267, -0.3509373963, -0.3403774500, -0.0097784009, 0.1366483271, -0.0101267295, -0.1032709256, -0.2416016608, -0.0527509339, 0.0563929863, -0.2188856900, -0.1918747723, 0.0382200219, -0.3504862785, -0.3987939358, 0.1048466638, -0.3674854934, -0.4660090506, -0.1351164579, -0.0462391861, -0.2938819528, -0.2159753293, -0.2464039177, 0.1186752096, -0.0219352897, -0.1058134213, -0.1242614239, 0.0571016558, -0.1245899424, -0.1937997937, -0.0456206091, -0.3827792108, -0.2215200812, -0.0045420458, -0.1587761492, -0.3359133005, -0.3814133406, -0.3702196181, -0.0274194051, -0.0046054143, -0.1599504501, -0.1157899126, -0.0876773670, -0.1751972437, 0.0402358472, 0.0203263778, 0.3946003914, 0.0924315304, -0.4811229706, 0.0322891884, 0.4063496888, 0.0435446464, 0.0157876015, -0.0584921837, 0.0293480158, 0.0118257310, -0.1079167947, -0.0004282982, 0.0253754184, -0.4301471114, -0.3141214550, -0.1187573969, -0.1578945220, -0.0018709236, 0.0148617243, -0.1186341345, -0.3067755401, -0.3321644962, -0.1707092524, -0.0030997619, -0.2290702164, -0.1118608862, 0.0611920878, 0.1263399273, 0.0833565816, 0.1193925962, -0.0480267406, -0.3927758038, -0.0801463798, -0.3491042256, -0.0323533788, -0.0175507385, -0.0733719468, -0.2386704236, 0.0633983538, -0.2897360325, -0.4266949594, -0.1352568865, -0.1436548680, 0.1082350537, -0.1235656589, -0.1670679301, 0.1495016515, 0.0855929181, -0.3730429411, -0.1240862310, -0.3410842419, 0.0104765650, -0.0518965796, -0.0174967945, 0.3025825322, -0.0013487021, 0.1042131856, 0.2323612124, 0.2087436020, -0.0146606229, 0.3487866819, 0.1339590102, -0.0212402791, 0.2091788352, 0.0098437089, -0.0051694033, -0.3757693768, -0.2186364979, -0.4499168992, -0.4708137214, -0.1865809262, -0.0098055024, 0.1164657101, -0.0489917360, 0.1035288274, -0.1313470304, -0.1309545040, -0.0106638102, 0.1609690040, 0.0244625621, 0.2023210675, 0.2160437256, 0.3399330378, -0.0879641473, -0.1932649165, -0.1393344998, -0.1440846473, -0.1694340706, 0.0752866715, -0.0002039962, -0.1151334792, -0.0638789162, -0.1378456354, -0.1483100802, 0.0229061861, -0.0120068248, -0.1986032575, -0.3818221390, 0.1091317311, -0.1532031745, -0.3901129663, 0.0624661371, 0.4800512195, 0.6001446247, 0.2229346037, 0.6231256723, 0.4820517600, -0.0036975781, 0.3228085637, -0.0830790699, -0.2272045761, 0.1122812554, 0.1481876969, -0.1752018332, -0.1248036548, 0.0194185525, -0.0885801613, -0.0403202325, -0.1005207300, -0.0042638755, 0.0598318577, -0.1205634847, -0.3521004319, -0.2807806134, -0.0344391987, 0.1271267533, -0.3418849707, -0.2197479606, -0.2505511642, -0.0588964559, -0.1617137045, -0.0025836206, 0.0025986196, -0.0367329940, -0.2833953202, -0.3050941229, -0.3291351795, 0.0656397864, -0.0137345716, 0.1509995311, -0.4708463848, -0.0214367807, 0.1903052628, -0.0038602888, 0.2364334464, -0.0601229779, 0.0474646352, -0.0743415505, 0.3401217759, -0.0049807508, -0.0562829971, 0.0730791315, -0.1274161786, -0.0341520868, -0.0582661927, -0.1505554914, -0.1647121906, -0.0476419777, -0.0728786588, -0.0487336218, 0.1107800156, -0.0010664761, -0.0317218527, 0.0206873827, -0.2041655332, 0.0262707230, -0.0604860634, -0.0006894218, -0.1333030164, -0.3796183765, -0.2947329581, -0.0844475850, -0.2862478197, 0.1389134079, -0.1141297370, -0.2284283638, 0.0555737428, -0.2234040797, -0.0217976738, 0.1006378159, 0.3153676689, 0.5687177777, 0.2226219475, 0.4579358101, 0.3440992832, -0.0056637428, -0.3360254467, -0.3028798401, 0.1210702807, -0.2277601063, -0.2248476446, 0.1736776829, -0.2082055509, -0.2903465033, 0.0107710762, 0.0531442389, -0.2780421376, -0.0147414496, 0.3044582903, 0.1614478528, 0.1544624716, 0.3076980412, 0.1769057661, -0.0971145481, -0.1908948869, 0.0482940823, -0.2194533497, 0.0156022459, 0.0353196114, 0.0819779113, -0.3422024846, -0.1004113331, -0.1828442365, -0.1046525538, -0.3126635849, -0.5397952199, 0.6529610157, 0.2250530720, 0.0847620219, 0.3107828200, 0.4972290099, 0.0321814045, 0.3980882168, 0.3973111510, -0.2131154239, 0.1759838462, 0.4814648628, -0.0240762383, 0.0792380050, 0.1809010804, 0.0110863578, 0.2614430189, -0.0548826568, -0.3378285170, -0.1370478868, 0.1349074543, -0.1611637920, -0.2013874352, 0.0767754763, 0.1162354797, -0.3885119259, -0.2615133524, -0.1860388666, 0.0590512976, -0.1908793896, -0.0049407040, -0.0576647110, 0.0951527283, 0.2050410658, -0.1786230206, -0.3088525236, -0.0077452776, -0.2377533168, -0.3544788957, -0.5037551522, -0.3870052099, -0.3545881212, -0.0135579295, 0.3354710937, -0.0340879634, 0.1063189581, 0.1092728972, 0.2898112237, -0.0094467811, -0.3296752572, -0.2158618718, -0.1198721677, -0.2991199493, -0.0509860590, 0.1592304558, 0.0187154170, 0.3211941123, -0.1234351099, 0.2681290209, 0.4161755741, -0.2156897932, -0.1738785356, 0.0212301761, -0.0090840310, 0.0191121250, -0.1691058278, -0.3885862827, -0.2527177632, 0.1355294734, 0.2216836959, -0.0528146997, 0.1711450070, -0.0013173245, -0.3693532944, -0.2856049538, -0.1802130789, -0.1698335260, -0.4800346792, 0.1391456127, -0.3757823110, -0.1688200235, -0.0052337185, -0.2453826368, -0.0180792753, -0.2335899025, 0.0684972331, -0.1385805756, 0.0089696702, -0.1244260669, -0.0255999789, -0.1667966247, 0.9626939893, 0.4611567259, 0.2228520960, 0.2562580705, 0.8129097223, -0.0329337865, -0.0818204209, -0.0727068111, 0.2667505145, 0.0787088424, -0.2022318095};

#endif

#endif
